{
  "w1": [
    [
      0.7527921795845032,
      0.18904343247413635,
      -0.5159683227539062,
      0.0641769990324974,
      0.12687337398529053,
      0.2170085906982422,
      -0.40422677993774414,
      0.08450853824615479,
      -0.22442421317100525,
      0.48951712250709534,
      0.719703733921051,
      -0.04574105516076088,
      0.015161445364356041,
      0.36026492714881897,
      0.041754093021154404,
      0.06366124749183655
    ],
    [
      -0.019837308675050735,
      -0.03699773922562599,
      -0.2941105365753174,
      -0.046662043780088425,
      0.17335981130599976,
      0.5023757219314575,
      -0.19075912237167358,
      0.16566497087478638,
      -0.18298260867595673,
      -0.28648483753204346,
      0.12590546905994415,
      0.18431754410266876,
      0.5549034476280212,
      0.307908296585083,
      0.13875973224639893,
      0.20496468245983124
    ],
    [
      0.5942795872688293,
      -0.7268296480178833,
      -0.06889112293720245,
      -0.22887705266475677,
      -0.665840208530426,
      -0.2534009516239166,
      0.20702438056468964,
      -0.6450822949409485,
      -0.28521811962127686,
      -0.643217146396637,
      0.33068475127220154,
      -0.27309101819992065,
      0.9296256303787231,
      1.112178921699524,
      -0.7893755435943604,
      -0.9099148511886597
    ],
    [
      0.6242170333862305,
      -0.3596942126750946,
      0.36113911867141724,
      -0.19876983761787415,
      -0.26005205512046814,
      0.28616881370544434,
      0.18290990591049194,
      -0.36773681640625,
      0.18210823833942413,
      -0.5342900156974792,
      0.6999397873878479,
      -0.4621957838535309,
      0.5666804313659668,
      0.6172304749488831,
      -0.13174882531166077,
      -0.23598189651966095
    ],
    [
      0.26181739568710327,
      -0.43829506635665894,
      -0.4110308885574341,
      -0.5256459712982178,
      -0.10252436995506287,
      -0.1272745132446289,
      -0.07829626649618149,
      -0.3844889998435974,
      0.3048276901245117,
      -0.6254501342773438,
      0.7782210111618042,
      -0.3033076226711273,
      0.4885658025741577,
      0.23807182908058167,
      -0.1271372139453888,
      -0.24623960256576538
    ],
    [
      -0.810182511806488,
      0.7096045613288879,
      0.09282723814249039,
      -0.5871686339378357,
      0.6294986605644226,
      0.815100908279419,
      -0.17819619178771973,
      0.6115483641624451,
      -0.21596397459506989,
      0.8463996648788452,
      -0.7513003945350647,
      -0.4269477427005768,
      -0.5639811158180237,
      0.3874070346355438,
      0.8883717060089111,
      0.7366659641265869
    ]
  ],
  "b1": [
    0.2055233120918274,
    0.3080034554004669,
    -0.07773866504430771,
    0,
    0.29868873953819275,
    0.35013070702552795,
    -0.12805767357349396,
    0.319063663482666,
    -0.059984587132930756,
    0.24967221915721893,
    0.10658340901136398,
    0,
    0.2765151858329773,
    0.4064032733440399,
    0.4006476104259491,
    0.4576042890548706
  ],
  "w2": [
    [
      -0.3620089888572693,
      -0.5250648260116577,
      0.9199041724205017,
      -0.09224271774291992,
      -0.4400029480457306,
      -0.5263012647628784,
      0.7710790634155273,
      0.5574309229850769
    ],
    [
      0.4396861791610718,
      0.6410216093063354,
      -0.5534347295761108,
      0.29560744762420654,
      0.3997817039489746,
      0.6737748384475708,
      -0.7284227013587952,
      -0.6885056495666504
    ],
    [
      -0.2959754765033722,
      -0.04020845517516136,
      -0.08316519111394882,
      -0.3112824559211731,
      -0.008086083456873894,
      -0.00080368627095595,
      0.1671714335680008,
      -0.18417216837406158
    ],
    [
      -0.36957448720932007,
      0.05117714777588844,
      0.18670479953289032,
      -0.13984708487987518,
      0.3233088254928589,
      0.2579626739025116,
      0.011614597402513027,
      -0.15456469357013702
    ],
    [
      0.360992431640625,
      0.7951268553733826,
      -0.5778210163116455,
      1.0002285242080688,
      0.7706875205039978,
      1.089253544807434,
      -0.097897008061409,
      -1.1676918268203735
    ],
    [
      0.5819727778434753,
      0.24576276540756226,
      0.5996881127357483,
      0.08525610715150833,
      0.0359535738825798,
      0.39037397503852844,
      -0.16776792705059052,
      0.575543999671936
    ],
    [
      0.27020320296287537,
      -0.06215101107954979,
      -0.13819752633571625,
      0.2476600706577301,
      -0.31585434079170227,
      0.24982111155986786,
      0.26805877685546875,
      0.2624092102050781
    ],
    [
      0.4832608997821808,
      0.4167800843715668,
      -0.45376038551330566,
      0.7698622941970825,
      1.110746145248413,
      0.4565575420856476,
      -0.19527968764305115,
      -0.1289757788181305
    ],
    [
      0.5317878127098083,
      -0.4351632595062256,
      -0.26094508171081543,
      -0.07170296460390091,
      0.3389090895652771,
      0.26809391379356384,
      0.33087456226348877,
      -0.06256366521120071
    ],
    [
      0.4061846137046814,
      0.5464944243431091,
      -0.28359800577163696,
      0.8213282227516174,
      0.3832225799560547,
      0.549720823764801,
      -0.17597953975200653,
      -0.08853833377361298
    ],
    [
      -0.4354674518108368,
      -0.30478060245513916,
      0.6850882172584534,
      -0.5548849701881409,
      -0.22937506437301636,
      -0.5277688503265381,
      0.77201247215271,
      0.5621665120124817
    ],
    [
      0.0813741683959961,
      0.38086289167404175,
      0.11844468116760254,
      -0.2940971255302429,
      0.38538771867752075,
      0.0660049319267273,
      0.02783653698861599,
      -0.4022231996059418
    ],
    [
      -0.40543121099472046,
      -0.5089618563652039,
      0.12791746854782104,
      -0.3903050124645233,
      -0.2935101389884949,
      -0.2727110981941223,
      0.7570269703865051,
      0.5986542105674744
    ],
    [
      0.012906513176858425,
      0.26983875036239624,
      0.5860393643379211,
      0.12081962823867798,
      -0.027505740523338318,
      0.1494424194097519,
      0.7288200855255127,
      0.8364757895469666
    ],
    [
      0.567186713218689,
      0.14361163973808289,
      -0.788838803768158,
      0.06167086213827133,
      0.8077178597450256,
      0.2936796545982361,
      -0.528841495513916,
      -1.0659713745117188
    ],
    [
      0.47558459639549255,
      0.544847846031189,
      -0.5640838742256165,
      0.6652944684028625,
      0.6767310500144958,
      0.3861742913722992,
      -0.3288162052631378,
      -0.9883508682250977
    ]
  ],
  "b2": [
    0.29661068320274353,
    0.34561407566070557,
    0.3793318569660187,
    0.08461549133062363,
    0.2909573018550873,
    0.1402592957019806,
    0.4516535699367523,
    0.5716547966003418
  ],
  "w3": [
    [
      -0.7939071655273438
    ],
    [
      -0.5986633896827698
    ],
    [
      1.0513495206832886
    ],
    [
      -0.39733850955963135
    ],
    [
      -1.1281657218933105
    ],
    [
      -0.4550498425960541
    ],
    [
      0.8206225037574768
    ],
    [
      0.7243143916130066
    ]
  ],
  "b3": [
    -0.2584682106971741
  ]
}